{
  "layers": [
    {
      "activation": 2,
      "biases": [
        0.0,
        0.016751639738791745,
        -0.105245918012335,
        0.581028669657127
      ],
      "cols": 4,
      "rows": 3,
      "weights": [
        [
          -0.6985082001491925,
          -1.360508746500458,
          0.8032967939948353,
          0.14530648284049005
        ],
        [
          -0.42845479152513355,
          -0.1419988725261551,
          0.3591895837131166,
          -0.917470839644784
        ],
        [
          -0.010945132014530675,
          0.5544497338556245,
          -0.7207468955134093,
          1.5360050722797038
        ]
      ]
    },
    {
      "activation": 2,
      "biases": [
        -0.2730719310867653,
        -0.14734480153594598,
        0.20713587198561112,
        -0.13263940620620476,
        -0.1395317810364722
      ],
      "cols": 5,
      "rows": 4,
      "weights": [
        [
          -0.30455357929691423,
          0.6509438232491886,
          0.2857112459219687,
          0.0093502573641093,
          0.2825489539662843
        ],
        [
          0.6985754169397841,
          -0.6413470824155918,
          -0.6839788063577873,
          0.9815478387639779,
          -0.06113422814436379
        ],
        [
          -0.45578188106766426,
          0.1945189134403612,
          0.4964308188425905,
          0.14193222403325476,
          0.7403035155486722
        ],
        [
          -0.143375490290688,
          -0.6441062204887807,
          -0.7473945905270799,
          1.2209940028051085,
          1.3227970305830887
        ]
      ]
    },
    {
      "activation": 0,
      "biases": [
        0.038781081634867036,
        0.5742468197479866,
        1.2096161664394975,
        0.23693951226022555,
        0.3613069065460057,
        0.6913045239194677
      ],
      "cols": 6,
      "rows": 5,
      "weights": [
        [
          0.2807002363246246,
          -0.03471832914698926,
          0.03582110381418409,
          -0.44057840591112757,
          -0.7164144272027085,
          0.2975287745459111
        ],
        [
          -0.27590528667430864,
          0.4050938645816658,
          -0.13677407700777197,
          0.5615704409760396,
          -0.06548956036702912,
          -0.4929403510332034
        ],
        [
          -0.030550189006301836,
          0.30973850748614584,
          -0.526235973092622,
          0.49630343170278274,
          0.40091525652907334,
          0.5640528627981298
        ],
        [
          -1.4671517117027157,
          0.004288368268056923,
          -0.691510480968605,
          0.31130054779866106,
          -0.057463958024868235,
          0.2408591999883939
        ],
        [
          1.6629335517691282,
          -0.09808470847179201,
          0.24279056963891157,
          -0.23822357350453308,
          -0.021405977977265712,
          -0.47520825660188293
        ]
      ]
    }
  ]
}
