{
  "layers": [
    {
      "activation": 2,
      "biases": [
        0.03384681951720323,
        -0.0687884004251828,
        0.6757512493161542,
        0.9783537900884764
      ],
      "cols": 4,
      "rows": 3,
      "weights": [
        [
          -0.6609688525051436,
          0.048783797125657,
          0.8169012531687915,
          -0.6892865433691631
        ],
        [
          0.7417075928618088,
          0.7325860261119908,
          -0.5968867661245695,
          1.152809992212941
        ],
        [
          -0.5593684001863616,
          0.0485724321823955,
          -0.5333253959476467,
          -0.4954095432043177
        ]
      ]
    },
    {
      "activation": 2,
      "biases": [
        0.1581126104300024,
        -0.07059924169942533,
        -0.6341406180922591,
        0.0,
        -0.6957046035579169
      ],
      "cols": 5,
      "rows": 4,
      "weights": [
        [
          -0.5557849455808287,
          0.5715894741624716,
          -0.15497361453083952,
          0.34052968342899065,
          0.3163113877300755
        ],
        [
          -0.11277083750268273,
          -0.4415833554755056,
          0.3387684647436605,
          -0.3586429123128894,
          -0.09230119925301628
        ],
        [
          -0.8241668556935502,
          -0.0031109029516167173,
          0.11148048792745012,
          -0.33366683425808125,
          0.7660341806190043
        ],
        [
          1.0436719621877326,
          -0.3173815101518301,
          1.0394666568752884,
          -0.23996556394807422,
          0.9603366395795385
        ]
      ]
    },
    {
      "activation": 0,
      "biases": [
        0.9320083239232918,
        0.4068775523651751,
        0.053928644760135674,
        0.3696507133526613,
        0.2574794732858916,
        0.1680770359952782
      ],
      "cols": 6,
      "rows": 5,
      "weights": [
        [
          -1.4154729981420635,
          -0.23084041197853228,
          -0.004866653030187465,
          0.14362107176176964,
          -0.32618248928497007,
          -0.20574492512652448
        ],
        [
          -0.13414387443893824,
          -0.4809416707783746,
          -0.700868703975048,
          -0.5909896686110956,
          -0.5894247433855693,
          0.19103182232558721
        ],
        [
          1.013481150880516,
          0.4486895678943262,
          -0.6299374095063506,
          -0.04719821207597236,
          0.5455872290928097,
          0.699993797790547
        ],
        [
          -0.1834448951420866,
          -0.59763070828843,
          -0.6218561366425037,
          -0.293470086681261,
          0.45574326975173135,
          -0.2744840796571031
        ],
        [
          -0.007743531481372979,
          -0.005429126896159006,
          1.3506175886221072,
          -0.08007687115215638,
          -0.016795628925752325,
          0.001381783376391733
        ]
      ]
    }
  ]
}
