{
  "layers": [
    {
      "activation": 2,
      "biases": [
        0.539395401044016,
        -0.4186243145491307,
        0.7241168279837521,
        1.4534356467881762
      ],
      "cols": 4,
      "rows": 3,
      "weights": [
        [
          -1.546562745445181,
          0.3253491552681256,
          1.2584296707000142,
          -0.8340722690478758
        ],
        [
          1.1542939481779346,
          0.6624411557275722,
          -0.7909184961029011,
          1.1866273512393586
        ],
        [
          -0.41659524383136687,
          0.38979051407955034,
          -0.409793247380251,
          -0.8082446663680545
        ]
      ]
    },
    {
      "activation": 2,
      "biases": [
        -0.17032448132805605,
        -0.07059924169942533,
        -0.8053203545170654,
        0.0,
        -0.8166449384872281
      ],
      "cols": 5,
      "rows": 4,
      "weights": [
        [
          -1.7409266398708916,
          0.5715894741624716,
          -0.32294075866086464,
          0.34052968342899065,
          0.08889432419142178
        ],
        [
          -0.5009092748689318,
          -0.4415833554755056,
          0.35778989624422197,
          -0.3586429123128894,
          -0.25122867961391415
        ],
        [
          -1.3792286702416305,
          -0.0031109029516167173,
          -0.11376737307200736,
          -0.33366683425808125,
          0.587863307564651
        ],
        [
          1.6884078719306417,
          -0.3173815101518301,
          1.1845515616314495,
          -0.23996556394807422,
          0.7835205706577864
        ]
      ]
    },
    {
      "activation": 0,
      "biases": [
        0.9345352282686814,
        0.40360441739305847,
        0.057015474155215656,
        0.36616984557214116,
        0.253678485355502,
        0.16159005015833156
      ],
      "cols": 6,
      "rows": 5,
      "weights": [
        [
          -2.6986250762010817,
          -0.4184382084409063,
          -0.031011775730076966,
          0.291972421476049,
          -0.5962101781201935,
          -0.3518580549687668
        ],
        [
          -0.13414387443893824,
          -0.4809416707783746,
          -0.700868703975048,
          -0.5909896686110956,
          -0.5894247433855693,
          0.19103182232558721
        ],
        [
          1.4029748294418305,
          0.4671389438044335,
          -0.2450074115743994,
          -0.11900501275406433,
          0.5826656907329595,
          0.6718290824083933
        ],
        [
          -0.1834448951420866,
          -0.59763070828843,
          -0.6218561366425037,
          -0.293470086681261,
          0.45574326975173135,
          -0.2744840796571031
        ],
        [
          -0.007293274786396589,
          0.0005111694624637551,
          1.1965041483990584,
          -0.07198490050941854,
          -0.009322415858752526,
          0.011959949437889363
        ]
      ]
    }
  ]
}
