{
  "layers": [
    {
      "activation": 2,
      "biases": [
        0.6873523109150683,
        -0.5861572956868634,
        0.9655067439700654,
        1.462191161777441
      ],
      "cols": 4,
      "rows": 3,
      "weights": [
        [
          -2.6257236688196604,
          0.36969178171693523,
          1.9795978227160704,
          -1.2824517157083744
        ],
        [
          2.1760951705815716,
          0.4867114243835698,
          -1.041644487362963,
          2.153525065838831
        ],
        [
          -0.4818911489411825,
          1.1695598704132708,
          -0.2748813360318235,
          -0.5967984319784553
        ]
      ]
    },
    {
      "activation": 2,
      "biases": [
        0.09101060000687922,
        -0.7958394884380251,
        -1.2925793999291426,
        -0.0012028947363151607,
        -0.2684700289588454
      ],
      "cols": 5,
      "rows": 4,
      "weights": [
        [
          -2.366904136734605,
          0.4074396581510111,
          -1.1881385744683428,
          0.32982981890407237,
          0.4772488676919637
        ],
        [
          -0.4959257475957283,
          -0.735041397718299,
          -0.19742461540754977,
          -0.36620202770270677,
          -0.8829207248817876
        ],
        [
          -1.5161538980149354,
          0.26394107241575754,
          -0.20364733001233948,
          -0.3225593916769497,
          0.38707583314097715
        ],
        [
          2.2035328378374297,
          0.22842493191742325,
          1.8270258798435397,
          -0.24591201795258083,
          0.3061877104145822
        ]
      ]
    },
    {
      "activation": 0,
      "biases": [
        0.9261286067116927,
        0.40356339931322865,
        0.05180918672750661,
        0.2797552928900658,
        0.24180154848232627,
        0.17458329188521046
      ],
      "cols": 6,
      "rows": 5,
      "weights": [
        [
          -2.797738395878109,
          -0.440585707102393,
          -0.0023394009275882863,
          0.9188716194735695,
          -0.545093828966312,
          -0.459973839180901
        ],
        [
          -0.8354273489261488,
          0.032455000180394204,
          -1.1640474611399485,
          -0.13827034416513823,
          -0.04042337011047883,
          0.24136309399609993
        ],
        [
          2.0921143989892053,
          0.47633089434829823,
          0.008680585873091637,
          -0.5946794509656192,
          0.5776186513073535,
          0.621933834957042
        ],
        [
          -0.1289338915930415,
          -0.6061812229410045,
          -0.6242506347337139,
          -0.27183575942821786,
          0.4415007879373838,
          -0.31302827983561093
        ],
        [
          0.011810327068456118,
          0.00019853259594341003,
          1.064860065098864,
          0.0012924021325747281,
          0.0012190960960272537,
          -0.00200559012740501
        ]
      ]
    }
  ]
}
