{
  "layers": [
    {
      "activation": 2,
      "biases": [
        0.19716519722544096,
        0.0,
        0.1192538230628567,
        0.43862838986910374
      ],
      "cols": 4,
      "rows": 3,
      "weights": [
        [
          -0.3456998461966111,
          -0.5674304536476884,
          0.44393804825264543,
          0.4788471850152688
        ],
        [
          0.6828350839895679,
          -0.8566067994182702,
          -0.0370569977054406,
          0.10267267821851192
        ],
        [
          0.5622837621033072,
          -0.4879263596944331,
          1.1698938222805624,
          -2.731989795310258
        ]
      ]
    },
    {
      "activation": 2,
      "biases": [
        0.0,
        -0.5595028092826076,
        0.5554691863031189,
        0.3400953127132645,
        0.0
      ],
      "cols": 5,
      "rows": 4,
      "weights": [
        [
          -0.20089952502659053,
          0.7950816057137513,
          -0.038290223925334495,
          -0.34919363094034606,
          0.021373392054891104
        ],
        [
          0.5115415951674708,
          0.2420196484979917,
          0.7852115395440752,
          0.6000352155712855,
          -0.03589534164455762
        ],
        [
          -0.22940718927231687,
          -0.36137694775712115,
          -1.4063179515727322,
          -0.5218606704194574,
          -0.718530295417556
        ],
        [
          -0.14977495910722258,
          1.9129141615654504,
          1.2014850523148455,
          1.853914164632131,
          -0.3542431617941185
        ]
      ]
    },
    {
      "activation": 0,
      "biases": [
        0.08717862768751904,
        0.16742358147615807,
        0.09157000407783042,
        0.12507431965019358,
        0.5837363138960633,
        0.8762274896710229
      ],
      "cols": 6,
      "rows": 5,
      "weights": [
        [
          0.11600454618882128,
          0.08251473883353846,
          -0.3180941446627421,
          -0.27890108376065714,
          -0.01736531083900047,
          0.6481874617856256
        ],
        [
          0.27294362611567363,
          -0.748910004964608,
          -0.21303323342971603,
          -1.2947780180010366,
          1.059834560815349,
          1.2277653538742495
        ],
        [
          -1.2714348878097046,
          -0.04869977271822033,
          1.2468579871569807,
          0.565753682590863,
          -0.3099142296109657,
          -0.41368738736463473
        ],
        [
          1.0606338763604168,
          0.9504244470909103,
          0.22737352627293875,
          0.93381501775251,
          -0.7269064660195711,
          -0.8554547911382727
        ],
        [
          -0.07461019785557259,
          0.3200614284295886,
          0.20792138458984086,
          0.6211763273393376,
          0.6336078353722796,
          -0.7228806264025978
        ]
      ]
    }
  ]
}
